digraph Tree {
node [shape=box, style="filled", color="black", fontname="helvetica"] ;
edge [fontname="helvetica"] ;
0 [label="PassengerId <= 3.5\ngini = 0.473\nsamples = 890\nvalue = [548, 342]", fillcolor="#f5d0b5"] ;
1 [label="gini = 0.0\nsamples = 3\nvalue = [0, 3]", fillcolor="#399de5"] ;
0 -> 1 [labeldistance=2.5, labelangle=45, headlabel="True"] ;
2 [label="Age <= 16.5\ngini = 0.472\nsamples = 887\nvalue = [548, 339]", fillcolor="#f5cfb3"] ;
0 -> 2 [labeldistance=2.5, labelangle=-45, headlabel="False"] ;
3 [label="Fare <= 140.085\ngini = 0.492\nsamples = 277\nvalue = [156, 121]", fillcolor="#f9e3d3"] ;
2 -> 3 ;
4 [label="PassengerId <= 17.5\ngini = 0.49\nsamples = 271\nvalue = [155, 116]", fillcolor="#f8dfcd"] ;
3 -> 4 ;
5 [label="Age <= inf\ngini = 0.278\nsamples = 6\nvalue = [1, 5]", fillcolor="#61b1ea"] ;
4 -> 5 ;
6 [label="gini = 0.0\nsamples = 5\nvalue = [0, 5]", fillcolor="#399de5"] ;
5 -> 6 ;
7 [label="gini = 0.0\nsamples = 1\nvalue = [1, 0]", fillcolor="#e58139"] ;
5 -> 7 ;
8 [label="PassengerId <= 182.5\ngini = 0.487\nsamples = 265\nvalue = [154, 111]", fillcolor="#f8dcc8"] ;
4 -> 8 ;
9 [label="Fare <= 15.148\ngini = 0.408\nsamples = 56\nvalue = [40, 16]", fillcolor="#efb388"] ;
8 -> 9 ;
10 [label="Fare <= 8.356\ngini = 0.285\nsamples = 29\nvalue = [24, 5]", fillcolor="#ea9b62"] ;
9 -> 10 ;
11 [label="Age <= 15.5\ngini = 0.363\nsamples = 21\nvalue = [16, 5]", fillcolor="#eda877"] ;
10 -> 11 ;
12 [label="gini = 0.0\nsamples = 1\nvalue = [0, 1]", fillcolor="#399de5"] ;
11 -> 12 ;
13 [label="Survived <= 0.5\ngini = 0.32\nsamples = 20\nvalue = [16, 4]", fillcolor="#eca06a"] ;
11 -> 13 ;
14 [label="Embarked_Q <= 0.5\ngini = 0.444\nsamples = 12\nvalue = [8, 4]", fillcolor="#f2c09c"] ;
13 -> 14 ;
15 [label="PassengerId <= 92.0\ngini = 0.397\nsamples = 11\nvalue = [8, 3]", fillcolor="#efb083"] ;
14 -> 15 ;
16 [label="PassengerId <= 77.5\ngini = 0.49\nsamples = 7\nvalue = [4, 3]", fillcolor="#f8e0ce"] ;
15 -> 16 ;
17 [label="Embarked_S <= 0.5\ngini = 0.32\nsamples = 5\nvalue = [4, 1]", fillcolor="#eca06a"] ;
16 -> 17 ;
18 [label="Fare <= 7.56\ngini = 0.5\nsamples = 2\nvalue = [1, 1]", fillcolor="#ffffff"] ;
17 -> 18 ;
19 [label="gini = 0.0\nsamples = 1\nvalue = [1, 0]", fillcolor="#e58139"] ;
18 -> 19 ;
20 [label="gini = 0.0\nsamples = 1\nvalue = [0, 1]", fillcolor="#399de5"] ;
18 -> 20 ;
21 [label="gini = 0.0\nsamples = 3\nvalue = [3, 0]", fillcolor="#e58139"] ;
17 -> 21 ;
22 [label="gini = 0.0\nsamples = 2\nvalue = [0, 2]", fillcolor="#399de5"] ;
16 -> 22 ;
23 [label="gini = 0.0\nsamples = 4\nvalue = [4, 0]", fillcolor="#e58139"] ;
15 -> 23 ;
24 [label="gini = 0.0\nsamples = 1\nvalue = [0, 1]", fillcolor="#399de5"] ;
14 -> 24 ;
25 [label="gini = 0.0\nsamples = 8\nvalue = [8, 0]", fillcolor="#e58139"] ;
13 -> 25 ;
26 [label="gini = 0.0\nsamples = 8\nvalue = [8, 0]", fillcolor="#e58139"] ;
10 -> 26 ;
27 [label="Fare <= 21.377\ngini = 0.483\nsamples = 27\nvalue = [16, 11]", fillcolor="#f7d8c1"] ;
9 -> 27 ;
28 [label="gini = 0.0\nsamples = 5\nvalue = [0, 5]", fillcolor="#399de5"] ;
27 -> 28 ;
29 [label="Age <= 4.5\ngini = 0.397\nsamples = 22\nvalue = [16, 6]", fillcolor="#efb083"] ;
27 -> 29 ;
30 [label="Fare <= 28.45\ngini = 0.444\nsamples = 6\nvalue = [2, 4]", fillcolor="#9ccef2"] ;
29 -> 30 ;
31 [label="gini = 0.0\nsamples = 1\nvalue = [1, 0]", fillcolor="#e58139"] ;
30 -> 31 ;
32 [label="Sex_male <= 0.5\ngini = 0.32\nsamples = 5\nvalue = [1, 4]", fillcolor="#6ab6ec"] ;
30 -> 32 ;
33 [label="PassengerId <= 82.0\ngini = 0.5\nsamples = 2\nvalue = [1, 1]", fillcolor="#ffffff"] ;
32 -> 33 ;
34 [label="gini = 0.0\nsamples = 1\nvalue = [0, 1]", fillcolor="#399de5"] ;
33 -> 34 ;
35 [label="gini = 0.0\nsamples = 1\nvalue = [1, 0]", fillcolor="#e58139"] ;
33 -> 35 ;
36 [label="gini = 0.0\nsamples = 3\nvalue = [0, 3]", fillcolor="#399de5"] ;
32 -> 36 ;
37 [label="Pclass <= 1.5\ngini = 0.219\nsamples = 16\nvalue = [14, 2]", fillcolor="#e99355"] ;
29 -> 37 ;
38 [label="PassengerId <= 116.0\ngini = 0.5\nsamples = 4\nvalue = [2, 2]", fillcolor="#ffffff"] ;
37 -> 38 ;
39 [label="gini = 0.0\nsamples = 2\nvalue = [0, 2]", fillcolor="#399de5"] ;
38 -> 39 ;
40 [label="gini = 0.0\nsamples = 2\nvalue = [2, 0]", fillcolor="#e58139"] ;
38 -> 40 ;
41 [label="gini = 0.0\nsamples = 12\nvalue = [12, 0]", fillcolor="#e58139"] ;
37 -> 41 ;
42 [label="PassengerId <= 462.5\ngini = 0.496\nsamples = 209\nvalue = [114.0, 95.0]", fillcolor="#fbeade"] ;
8 -> 42 ;
43 [label="PassengerId <= 423.5\ngini = 0.493\nsamples = 82\nvalue = [36.0, 46.0]", fillcolor="#d4eaf9"] ;
42 -> 43 ;
44 [label="Fare <= 37.0\ngini = 0.5\nsamples = 70\nvalue = [34, 36]", fillcolor="#f4fafe"] ;
43 -> 44 ;
45 [label="Parch <= 1.5\ngini = 0.496\nsamples = 59\nvalue = [32, 27]", fillcolor="#fbebe0"] ;
44 -> 45 ;
46 [label="PassengerId <= 195.5\ngini = 0.5\nsamples = 52\nvalue = [26, 26]", fillcolor="#ffffff"] ;
45 -> 46 ;
47 [label="gini = 0.0\nsamples = 2\nvalue = [0, 2]", fillcolor="#399de5"] ;
46 -> 47 ;
48 [label="PassengerId <= 207.5\ngini = 0.499\nsamples = 50\nvalue = [26, 24]", fillcolor="#fdf5f0"] ;
46 -> 48 ;
49 [label="gini = 0.0\nsamples = 3\nvalue = [3, 0]", fillcolor="#e58139"] ;
48 -> 49 ;
50 [label="PassengerId <= 218.0\ngini = 0.5\nsamples = 47\nvalue = [23.0, 24.0]", fillcolor="#f7fbfe"] ;
48 -> 50 ;
51 [label="gini = 0.0\nsamples = 2\nvalue = [0, 2]", fillcolor="#399de5"] ;
50 -> 51 ;
52 [label="SibSp <= 2.5\ngini = 0.5\nsamples = 45\nvalue = [23, 22]", fillcolor="#fefaf6"] ;
50 -> 52 ;
53 [label="PassengerId <= 411.5\ngini = 0.497\nsamples = 41\nvalue = [22, 19]", fillcolor="#fbeee4"] ;
52 -> 53 ;
54 [label="Fare <= 7.64\ngini = 0.491\nsamples = 37\nvalue = [21, 16]", fillcolor="#f9e1d0"] ;
53 -> 54 ;
55 [label="PassengerId <= 361.5\ngini = 0.278\nsamples = 6\nvalue = [5, 1]", fillcolor="#ea9a61"] ;
54 -> 55 ;
56 [label="gini = 0.0\nsamples = 5\nvalue = [5, 0]", fillcolor="#e58139"] ;
55 -> 56 ;
57 [label="gini = 0.0\nsamples = 1\nvalue = [0, 1]", fillcolor="#399de5"] ;
55 -> 57 ;
58 [label="Fare <= 7.815\ngini = 0.499\nsamples = 31\nvalue = [16, 15]", fillcolor="#fdf7f3"] ;
54 -> 58 ;
59 [label="PassengerId <= 270.0\ngini = 0.278\nsamples = 6\nvalue = [1, 5]", fillcolor="#61b1ea"] ;
58 -> 59 ;
60 [label="Sex_male <= 0.5\ngini = 0.5\nsamples = 2\nvalue = [1, 1]", fillcolor="#ffffff"] ;
59 -> 60 ;
61 [label="gini = 0.0\nsamples = 1\nvalue = [1, 0]", fillcolor="#e58139"] ;
60 -> 61 ;
62 [label="gini = 0.0\nsamples = 1\nvalue = [0, 1]", fillcolor="#399de5"] ;
60 -> 62 ;
63 [label="gini = 0.0\nsamples = 4\nvalue = [0, 4]", fillcolor="#399de5"] ;
59 -> 63 ;
64 [label="PassengerId <= 359.5\ngini = 0.48\nsamples = 25\nvalue = [15, 10]", fillcolor="#f6d5bd"] ;
58 -> 64 ;
65 [label="Embarked_Q <= 0.5\ngini = 0.5\nsamples = 20\nvalue = [10, 10]", fillcolor="#ffffff"] ;
64 -> 65 ;
66 [label="PassengerId <= 348.5\ngini = 0.48\nsamples = 15\nvalue = [6, 9]", fillcolor="#bddef6"] ;
65 -> 66 ;
67 [label="SibSp <= 0.5\ngini = 0.426\nsamples = 13\nvalue = [4, 9]", fillcolor="#91c9f1"] ;
66 -> 67 ;
68 [label="Fare <= 29.11\ngini = 0.494\nsamples = 9\nvalue = [4, 5]", fillcolor="#d7ebfa"] ;
67 -> 68 ;
69 [label="Pclass <= 2.0\ngini = 0.49\nsamples = 7\nvalue = [4, 3]", fillcolor="#f8e0ce"] ;
68 -> 69 ;
70 [label="gini = 0.0\nsamples = 2\nvalue = [2, 0]", fillcolor="#e58139"] ;
69 -> 70 ;
71 [label="PassengerId <= 222.5\ngini = 0.48\nsamples = 5\nvalue = [2, 3]", fillcolor="#bddef6"] ;
69 -> 71 ;
72 [label="gini = 0.0\nsamples = 1\nvalue = [1, 0]", fillcolor="#e58139"] ;
71 -> 72 ;
73 [label="PassengerId <= 320.5\ngini = 0.375\nsamples = 4\nvalue = [1, 3]", fillcolor="#7bbeee"] ;
71 -> 73 ;
74 [label="gini = 0.0\nsamples = 3\nvalue = [0, 3]", fillcolor="#399de5"] ;
73 -> 74 ;
75 [label="gini = 0.0\nsamples = 1\nvalue = [1, 0]", fillcolor="#e58139"] ;
73 -> 75 ;
76 [label="gini = 0.0\nsamples = 2\nvalue = [0, 2]", fillcolor="#399de5"] ;
68 -> 76 ;
77 [label="gini = 0.0\nsamples = 4\nvalue = [0, 4]", fillcolor="#399de5"] ;
67 -> 77 ;
78 [label="gini = 0.0\nsamples = 2\nvalue = [2, 0]", fillcolor="#e58139"] ;
66 -> 78 ;
79 [label="Fare <= 10.115\ngini = 0.32\nsamples = 5\nvalue = [4, 1]", fillcolor="#eca06a"] ;
65 -> 79 ;
80 [label="gini = 0.0\nsamples = 1\nvalue = [0, 1]", fillcolor="#399de5"] ;
79 -> 80 ;
81 [label="gini = 0.0\nsamples = 4\nvalue = [4, 0]", fillcolor="#e58139"] ;
79 -> 81 ;
82 [label="gini = 0.0\nsamples = 5\nvalue = [5, 0]", fillcolor="#e58139"] ;
64 -> 82 ;
83 [label="PassengerId <= 418.5\ngini = 0.375\nsamples = 4\nvalue = [1, 3]", fillcolor="#7bbeee"] ;
53 -> 83 ;
84 [label="gini = 0.0\nsamples = 3\nvalue = [0, 3]", fillcolor="#399de5"] ;
83 -> 84 ;
85 [label="gini = 0.0\nsamples = 1\nvalue = [1, 0]", fillcolor="#e58139"] ;
83 -> 85 ;
86 [label="PassengerId <= 392.5\ngini = 0.375\nsamples = 4\nvalue = [1, 3]", fillcolor="#7bbeee"] ;
52 -> 86 ;
87 [label="gini = 0.0\nsamples = 3\nvalue = [0, 3]", fillcolor="#399de5"] ;
86 -> 87 ;
88 [label="gini = 0.0\nsamples = 1\nvalue = [1, 0]", fillcolor="#e58139"] ;
86 -> 88 ;
89 [label="PassengerId <= 184.0\ngini = 0.245\nsamples = 7\nvalue = [6, 1]", fillcolor="#e9965a"] ;
45 -> 89 ;
90 [label="gini = 0.0\nsamples = 1\nvalue = [0, 1]", fillcolor="#399de5"] ;
89 -> 90 ;
91 [label="gini = 0.0\nsamples = 6\nvalue = [6, 0]", fillcolor="#e58139"] ;
89 -> 91 ;
92 [label="Fare <= 122.267\ngini = 0.298\nsamples = 11\nvalue = [2, 9]", fillcolor="#65b3eb"] ;
44 -> 92 ;
93 [label="SibSp <= 6.5\ngini = 0.18\nsamples = 10\nvalue = [1, 9]", fillcolor="#4fa8e8"] ;
92 -> 93 ;
94 [label="gini = 0.0\nsamples = 8\nvalue = [0, 8]", fillcolor="#399de5"] ;
93 -> 94 ;
95 [label="PassengerId <= 263.5\ngini = 0.5\nsamples = 2\nvalue = [1, 1]", fillcolor="#ffffff"] ;
93 -> 95 ;
96 [label="gini = 0.0\nsamples = 1\nvalue = [1, 0]", fillcolor="#e58139"] ;
95 -> 96 ;
97 [label="gini = 0.0\nsamples = 1\nvalue = [0, 1]", fillcolor="#399de5"] ;
95 -> 97 ;
98 [label="gini = 0.0\nsamples = 1\nvalue = [1, 0]", fillcolor="#e58139"] ;
92 -> 98 ;
99 [label="Age <= 13.5\ngini = 0.278\nsamples = 12\nvalue = [2, 10]", fillcolor="#61b1ea"] ;
43 -> 99 ;
100 [label="Fare <= 19.733\ngini = 0.165\nsamples = 11\nvalue = [1, 10]", fillcolor="#4da7e8"] ;
99 -> 100 ;
101 [label="gini = 0.0\nsamples = 8\nvalue = [0, 8]", fillcolor="#399de5"] ;
100 -> 101 ;
102 [label="Fare <= 35.915\ngini = 0.444\nsamples = 3\nvalue = [1, 2]", fillcolor="#9ccef2"] ;
100 -> 102 ;
103 [label="gini = 0.0\nsamples = 1\nvalue = [1, 0]", fillcolor="#e58139"] ;
102 -> 103 ;
104 [label="gini = 0.0\nsamples = 2\nvalue = [0, 2]", fillcolor="#399de5"] ;
102 -> 104 ;
105 [label="gini = 0.0\nsamples = 1\nvalue = [1, 0]", fillcolor="#e58139"] ;
99 -> 105 ;
106 [label="Pclass <= 2.5\ngini = 0.474\nsamples = 127\nvalue = [78, 49]", fillcolor="#f5d0b5"] ;
42 -> 106 ;
107 [label="Age <= 0.915\ngini = 0.342\nsamples = 32\nvalue = [25, 7]", fillcolor="#eca470"] ;
106 -> 107 ;
108 [label="PassengerId <= 716.5\ngini = 0.18\nsamples = 20\nvalue = [18, 2]", fillcolor="#e88f4f"] ;
107 -> 108 ;
109 [label="PassengerId <= 652.0\ngini = 0.32\nsamples = 10\nvalue = [8, 2]", fillcolor="#eca06a"] ;
108 -> 109 ;
110 [label="gini = 0.0\nsamples = 8\nvalue = [8, 0]", fillcolor="#e58139"] ;
109 -> 110 ;
111 [label="gini = 0.0\nsamples = 2\nvalue = [0, 2]", fillcolor="#399de5"] ;
109 -> 111 ;
112 [label="gini = 0.0\nsamples = 10\nvalue = [10, 0]", fillcolor="#e58139"] ;
108 -> 112 ;
113 [label="Sex_male <= 0.5\ngini = 0.486\nsamples = 12\nvalue = [7, 5]", fillcolor="#f8dbc6"] ;
107 -> 113 ;
114 [label="Fare <= 24.5\ngini = 0.278\nsamples = 6\nvalue = [5, 1]", fillcolor="#ea9a61"] ;
113 -> 114 ;
115 [label="gini = 0.0\nsamples = 1\nvalue = [0, 1]", fillcolor="#399de5"] ;
114 -> 115 ;
116 [label="gini = 0.0\nsamples = 5\nvalue = [5, 0]", fillcolor="#e58139"] ;
114 -> 116 ;
117 [label="PassengerId <= 797.5\ngini = 0.444\nsamples = 6\nvalue = [2, 4]", fillcolor="#9ccef2"] ;
113 -> 117 ;
118 [label="PassengerId <= 612.5\ngini = 0.444\nsamples = 3\nvalue = [2, 1]", fillcolor="#f2c09c"] ;
117 -> 118 ;
119 [label="gini = 0.0\nsamples = 1\nvalue = [0, 1]", fillcolor="#399de5"] ;
118 -> 119 ;
120 [label="gini = 0.0\nsamples = 2\nvalue = [2, 0]", fillcolor="#e58139"] ;
118 -> 120 ;
121 [label="gini = 0.0\nsamples = 3\nvalue = [0, 3]", fillcolor="#399de5"] ;
117 -> 121 ;
122 [label="SibSp <= 3.5\ngini = 0.493\nsamples = 95\nvalue = [53.0, 42.0]", fillcolor="#fae5d6"] ;
106 -> 122 ;
123 [label="SibSp <= 2.5\ngini = 0.499\nsamples = 83\nvalue = [43, 40]", fillcolor="#fdf6f1"] ;
122 -> 123 ;
124 [label="PassengerId <= 493.5\ngini = 0.496\nsamples = 79\nvalue = [43, 36]", fillcolor="#fbeadf"] ;
123 -> 124 ;
125 [label="Embarked_Q <= 0.5\ngini = 0.245\nsamples = 7\nvalue = [6, 1]", fillcolor="#e9965a"] ;
124 -> 125 ;
126 [label="gini = 0.0\nsamples = 6\nvalue = [6, 0]", fillcolor="#e58139"] ;
125 -> 126 ;
127 [label="gini = 0.0\nsamples = 1\nvalue = [0, 1]", fillcolor="#399de5"] ;
125 -> 127 ;
128 [label="Age <= 0.875\ngini = 0.5\nsamples = 72\nvalue = [37, 35]", fillcolor="#fef8f4"] ;
124 -> 128 ;
129 [label="gini = 0.0\nsamples = 2\nvalue = [0, 2]", fillcolor="#399de5"] ;
128 -> 129 ;
130 [label="PassengerId <= 877.5\ngini = 0.498\nsamples = 70\nvalue = [37, 33]", fillcolor="#fcf1ea"] ;
128 -> 130 ;
131 [label="Parch <= 1.5\ngini = 0.496\nsamples = 68\nvalue = [37, 31]", fillcolor="#fbebdf"] ;
130 -> 131 ;
132 [label="PassengerId <= 869.5\ngini = 0.5\nsamples = 64\nvalue = [33, 31]", fillcolor="#fdf7f3"] ;
131 -> 132 ;
133 [label="PassengerId <= 826.5\ngini = 0.5\nsamples = 62\nvalue = [31, 31]", fillcolor="#ffffff"] ;
132 -> 133 ;
134 [label="Fare <= 7.59\ngini = 0.497\nsamples = 54\nvalue = [29.0, 25.0]", fillcolor="#fbeee4"] ;
133 -> 134 ;
135 [label="PassengerId <= 550.5\ngini = 0.42\nsamples = 10\nvalue = [3, 7]", fillcolor="#8ec7f0"] ;
134 -> 135 ;
136 [label="PassengerId <= 524.0\ngini = 0.444\nsamples = 3\nvalue = [2, 1]", fillcolor="#f2c09c"] ;
135 -> 136 ;
137 [label="gini = 0.0\nsamples = 1\nvalue = [0, 1]", fillcolor="#399de5"] ;
136 -> 137 ;
138 [label="gini = 0.0\nsamples = 2\nvalue = [2, 0]", fillcolor="#e58139"] ;
136 -> 138 ;
139 [label="Fare <= 7.0\ngini = 0.245\nsamples = 7\nvalue = [1, 6]", fillcolor="#5aade9"] ;
135 -> 139 ;
140 [label="gini = 0.0\nsamples = 1\nvalue = [1, 0]", fillcolor="#e58139"] ;
139 -> 140 ;
141 [label="gini = 0.0\nsamples = 6\nvalue = [0, 6]", fillcolor="#399de5"] ;
139 -> 141 ;
142 [label="PassengerId <= 557.0\ngini = 0.483\nsamples = 44\nvalue = [26, 18]", fillcolor="#f7d8c2"] ;
134 -> 142 ;
143 [label="PassengerId <= 507.5\ngini = 0.408\nsamples = 7\nvalue = [2, 5]", fillcolor="#88c4ef"] ;
142 -> 143 ;
144 [label="PassengerId <= 497.0\ngini = 0.444\nsamples = 3\nvalue = [2, 1]", fillcolor="#f2c09c"] ;
143 -> 144 ;
145 [label="gini = 0.0\nsamples = 1\nvalue = [0, 1]", fillcolor="#399de5"] ;
144 -> 145 ;
146 [label="gini = 0.0\nsamples = 2\nvalue = [2, 0]", fillcolor="#e58139"] ;
144 -> 146 ;
147 [label="gini = 0.0\nsamples = 4\nvalue = [0, 4]", fillcolor="#399de5"] ;
143 -> 147 ;
148 [label="PassengerId <= 577.0\ngini = 0.456\nsamples = 37\nvalue = [24, 13]", fillcolor="#f3c5a4"] ;
142 -> 148 ;
149 [label="gini = 0.0\nsamples = 5\nvalue = [5, 0]", fillcolor="#e58139"] ;
148 -> 149 ;
150 [label="PassengerId <= 587.5\ngini = 0.482\nsamples = 32\nvalue = [19, 13]", fillcolor="#f7d7c0"] ;
148 -> 150 ;
151 [label="gini = 0.0\nsamples = 2\nvalue = [0, 2]", fillcolor="#399de5"] ;
150 -> 151 ;
152 [label="Age <= 13.5\ngini = 0.464\nsamples = 30\nvalue = [19, 11]", fillcolor="#f4caac"] ;
150 -> 152 ;
153 [label="PassengerId <= 622.0\ngini = 0.436\nsamples = 28\nvalue = [19, 9]", fillcolor="#f1bd97"] ;
152 -> 153 ;
154 [label="gini = 0.0\nsamples = 4\nvalue = [4, 0]", fillcolor="#e58139"] ;
153 -> 154 ;
155 [label="PassengerId <= 652.5\ngini = 0.469\nsamples = 24\nvalue = [15, 9]", fillcolor="#f5cdb0"] ;
153 -> 155 ;
156 [label="SibSp <= 0.5\ngini = 0.375\nsamples = 4\nvalue = [1, 3]", fillcolor="#7bbeee"] ;
155 -> 156 ;
157 [label="gini = 0.0\nsamples = 3\nvalue = [0, 3]", fillcolor="#399de5"] ;
156 -> 157 ;
158 [label="gini = 0.0\nsamples = 1\nvalue = [1, 0]", fillcolor="#e58139"] ;
156 -> 158 ;
159 [label="Age <= 4.5\ngini = 0.42\nsamples = 20\nvalue = [14, 6]", fillcolor="#f0b78e"] ;
155 -> 159 ;
160 [label="gini = 0.0\nsamples = 1\nvalue = [0, 1]", fillcolor="#399de5"] ;
159 -> 160 ;
161 [label="Fare <= 15.373\ngini = 0.388\nsamples = 19\nvalue = [14, 5]", fillcolor="#eeae80"] ;
159 -> 161 ;
162 [label="SibSp <= 0.5\ngini = 0.444\nsamples = 15\nvalue = [10, 5]", fillcolor="#f2c09c"] ;
161 -> 162 ;
163 [label="Survived <= 0.5\ngini = 0.408\nsamples = 14\nvalue = [10, 4]", fillcolor="#efb388"] ;
162 -> 163 ;
164 [label="Embarked_S <= 0.5\ngini = 0.494\nsamples = 9\nvalue = [5, 4]", fillcolor="#fae6d7"] ;
163 -> 164 ;
165 [label="PassengerId <= 785.0\ngini = 0.375\nsamples = 4\nvalue = [1, 3]", fillcolor="#7bbeee"] ;
164 -> 165 ;
166 [label="gini = 0.0\nsamples = 3\nvalue = [0, 3]", fillcolor="#399de5"] ;
165 -> 166 ;
167 [label="gini = 0.0\nsamples = 1\nvalue = [1, 0]", fillcolor="#e58139"] ;
165 -> 167 ;
168 [label="PassengerId <= 739.5\ngini = 0.32\nsamples = 5\nvalue = [4, 1]", fillcolor="#eca06a"] ;
164 -> 168 ;
169 [label="gini = 0.0\nsamples = 3\nvalue = [3, 0]", fillcolor="#e58139"] ;
168 -> 169 ;
170 [label="Fare <= 11.198\ngini = 0.5\nsamples = 2\nvalue = [1, 1]", fillcolor="#ffffff"] ;
168 -> 170 ;
171 [label="gini = 0.0\nsamples = 1\nvalue = [0, 1]", fillcolor="#399de5"] ;
170 -> 171 ;
172 [label="gini = 0.0\nsamples = 1\nvalue = [1, 0]", fillcolor="#e58139"] ;
170 -> 172 ;
173 [label="gini = 0.0\nsamples = 5\nvalue = [5, 0]", fillcolor="#e58139"] ;
163 -> 173 ;
174 [label="gini = 0.0\nsamples = 1\nvalue = [0, 1]", fillcolor="#399de5"] ;
162 -> 174 ;
175 [label="gini = 0.0\nsamples = 4\nvalue = [4, 0]", fillcolor="#e58139"] ;
161 -> 175 ;
176 [label="gini = 0.0\nsamples = 2\nvalue = [0, 2]", fillcolor="#399de5"] ;
152 -> 176 ;
177 [label="Fare <= 7.49\ngini = 0.375\nsamples = 8\nvalue = [2, 6]", fillcolor="#7bbeee"] ;
133 -> 177 ;
178 [label="gini = 0.0\nsamples = 2\nvalue = [2, 0]", fillcolor="#e58139"] ;
177 -> 178 ;
179 [label="gini = 0.0\nsamples = 6\nvalue = [0, 6]", fillcolor="#399de5"] ;
177 -> 179 ;
180 [label="gini = 0.0\nsamples = 2\nvalue = [2, 0]", fillcolor="#e58139"] ;
132 -> 180 ;
181 [label="gini = 0.0\nsamples = 4\nvalue = [4, 0]", fillcolor="#e58139"] ;
131 -> 181 ;
182 [label="gini = 0.0\nsamples = 2\nvalue = [0, 2]", fillcolor="#399de5"] ;
130 -> 182 ;
183 [label="gini = 0.0\nsamples = 4\nvalue = [0, 4]", fillcolor="#399de5"] ;
123 -> 183 ;
184 [label="Fare <= 30.2\ngini = 0.278\nsamples = 12\nvalue = [10, 2]", fillcolor="#ea9a61"] ;
122 -> 184 ;
185 [label="gini = 0.0\nsamples = 1\nvalue = [0, 1]", fillcolor="#399de5"] ;
184 -> 185 ;
186 [label="PassengerId <= 613.5\ngini = 0.165\nsamples = 11\nvalue = [10, 1]", fillcolor="#e88e4d"] ;
184 -> 186 ;
187 [label="PassengerId <= 542.5\ngini = 0.444\nsamples = 3\nvalue = [2, 1]", fillcolor="#f2c09c"] ;
186 -> 187 ;
188 [label="gini = 0.0\nsamples = 2\nvalue = [2, 0]", fillcolor="#e58139"] ;
187 -> 188 ;
189 [label="gini = 0.0\nsamples = 1\nvalue = [0, 1]", fillcolor="#399de5"] ;
187 -> 189 ;
190 [label="gini = 0.0\nsamples = 8\nvalue = [8, 0]", fillcolor="#e58139"] ;
186 -> 190 ;
191 [label="Fare <= 216.558\ngini = 0.278\nsamples = 6\nvalue = [1, 5]", fillcolor="#61b1ea"] ;
3 -> 191 ;
192 [label="gini = 0.0\nsamples = 4\nvalue = [0, 4]", fillcolor="#399de5"] ;
191 -> 192 ;
193 [label="Embarked_S <= 0.5\ngini = 0.5\nsamples = 2\nvalue = [1, 1]", fillcolor="#ffffff"] ;
191 -> 193 ;
194 [label="gini = 0.0\nsamples = 1\nvalue = [0, 1]", fillcolor="#399de5"] ;
193 -> 194 ;
195 [label="gini = 0.0\nsamples = 1\nvalue = [1, 0]", fillcolor="#e58139"] ;
193 -> 195 ;
196 [label="Age <= 40.25\ngini = 0.459\nsamples = 610\nvalue = [392, 218]", fillcolor="#f3c7a7"] ;
2 -> 196 ;
197 [label="Parch <= 2.5\ngini = 0.442\nsamples = 460\nvalue = [308, 152]", fillcolor="#f2bf9b"] ;
196 -> 197 ;
198 [label="PassengerId <= 622.0\ngini = 0.446\nsamples = 452\nvalue = [300, 152]", fillcolor="#f2c19d"] ;
197 -> 198 ;
199 [label="PassengerId <= 246.0\ngini = 0.464\nsamples = 314\nvalue = [199.0, 115.0]", fillcolor="#f4caab"] ;
198 -> 199 ;
200 [label="PassengerId <= 85.5\ngini = 0.402\nsamples = 122\nvalue = [88, 34]", fillcolor="#efb286"] ;
199 -> 200 ;
201 [label="PassengerId <= 80.5\ngini = 0.491\nsamples = 37\nvalue = [21, 16]", fillcolor="#f9e1d0"] ;
200 -> 201 ;
202 [label="Fare <= 7.44\ngini = 0.463\nsamples = 33\nvalue = [21, 12]", fillcolor="#f4c9aa"] ;
201 -> 202 ;
203 [label="gini = 0.0\nsamples = 2\nvalue = [0, 2]", fillcolor="#399de5"] ;
202 -> 203 ;
204 [label="PassengerId <= 33.0\ngini = 0.437\nsamples = 31\nvalue = [21, 10]", fillcolor="#f1bd97"] ;
202 -> 204 ;
205 [label="Fare <= 9.592\ngini = 0.48\nsamples = 10\nvalue = [4, 6]", fillcolor="#bddef6"] ;
204 -> 205 ;
206 [label="gini = 0.0\nsamples = 2\nvalue = [2, 0]", fillcolor="#e58139"] ;
205 -> 206 ;
207 [label="Fare <= 31.61\ngini = 0.375\nsamples = 8\nvalue = [2, 6]", fillcolor="#7bbeee"] ;
205 -> 207 ;
208 [label="gini = 0.0\nsamples = 5\nvalue = [0, 5]", fillcolor="#399de5"] ;
207 -> 208 ;
209 [label="Fare <= 158.05\ngini = 0.444\nsamples = 3\nvalue = [2, 1]", fillcolor="#f2c09c"] ;
207 -> 209 ;
210 [label="gini = 0.0\nsamples = 2\nvalue = [2, 0]", fillcolor="#e58139"] ;
209 -> 210 ;
211 [label="gini = 0.0\nsamples = 1\nvalue = [0, 1]", fillcolor="#399de5"] ;
209 -> 211 ;
212 [label="Age <= 26.5\ngini = 0.308\nsamples = 21\nvalue = [17, 4]", fillcolor="#eb9f68"] ;
204 -> 212 ;
213 [label="Survived <= 0.5\ngini = 0.444\nsamples = 12\nvalue = [8, 4]", fillcolor="#f2c09c"] ;
212 -> 213 ;
214 [label="Embarked_S <= 0.5\ngini = 0.494\nsamples = 9\nvalue = [5, 4]", fillcolor="#fae6d7"] ;
213 -> 214 ;
215 [label="gini = 0.0\nsamples = 1\nvalue = [0, 1]", fillcolor="#399de5"] ;
214 -> 215 ;
216 [label="PassengerId <= 69.0\ngini = 0.469\nsamples = 8\nvalue = [5, 3]", fillcolor="#f5cdb0"] ;
214 -> 216 ;
217 [label="PassengerId <= 51.0\ngini = 0.48\nsamples = 5\nvalue = [2, 3]", fillcolor="#bddef6"] ;
216 -> 217 ;
218 [label="Fare <= 17.9\ngini = 0.444\nsamples = 3\nvalue = [2, 1]", fillcolor="#f2c09c"] ;
217 -> 218 ;
219 [label="gini = 0.0\nsamples = 2\nvalue = [2, 0]", fillcolor="#e58139"] ;
218 -> 219 ;
220 [label="gini = 0.0\nsamples = 1\nvalue = [0, 1]", fillcolor="#399de5"] ;
218 -> 220 ;
221 [label="gini = 0.0\nsamples = 2\nvalue = [0, 2]", fillcolor="#399de5"] ;
217 -> 221 ;
222 [label="gini = 0.0\nsamples = 3\nvalue = [3, 0]", fillcolor="#e58139"] ;
216 -> 222 ;
223 [label="gini = 0.0\nsamples = 3\nvalue = [3, 0]", fillcolor="#e58139"] ;
213 -> 223 ;
224 [label="gini = 0.0\nsamples = 9\nvalue = [9, 0]", fillcolor="#e58139"] ;
212 -> 224 ;
225 [label="gini = 0.0\nsamples = 4\nvalue = [0, 4]", fillcolor="#399de5"] ;
201 -> 225 ;
226 [label="Fare <= 7.91\ngini = 0.334\nsamples = 85\nvalue = [67, 18]", fillcolor="#eca36e"] ;
200 -> 226 ;
227 [label="Survived <= 0.5\ngini = 0.454\nsamples = 23\nvalue = [15, 8]", fillcolor="#f3c4a3"] ;
226 -> 227 ;
228 [label="Fare <= 7.875\ngini = 0.346\nsamples = 18\nvalue = [14, 4]", fillcolor="#eca572"] ;
227 -> 228 ;
229 [label="Fare <= 7.088\ngini = 0.142\nsamples = 13\nvalue = [12, 1]", fillcolor="#e78c49"] ;
228 -> 229 ;
230 [label="PassengerId <= 207.0\ngini = 0.32\nsamples = 5\nvalue = [4, 1]", fillcolor="#eca06a"] ;
229 -> 230 ;
231 [label="gini = 0.0\nsamples = 4\nvalue = [4, 0]", fillcolor="#e58139"] ;
230 -> 231 ;
232 [label="gini = 0.0\nsamples = 1\nvalue = [0, 1]", fillcolor="#399de5"] ;
230 -> 232 ;
233 [label="gini = 0.0\nsamples = 8\nvalue = [8, 0]", fillcolor="#e58139"] ;
229 -> 233 ;
234 [label="Age <= 34.5\ngini = 0.48\nsamples = 5\nvalue = [2, 3]", fillcolor="#bddef6"] ;
228 -> 234 ;
235 [label="Age <= 30.5\ngini = 0.444\nsamples = 3\nvalue = [2, 1]", fillcolor="#f2c09c"] ;
234 -> 235 ;
236 [label="Sex_male <= 0.5\ngini = 0.5\nsamples = 2\nvalue = [1, 1]", fillcolor="#ffffff"] ;
235 -> 236 ;
237 [label="gini = 0.0\nsamples = 1\nvalue = [1, 0]", fillcolor="#e58139"] ;
236 -> 237 ;
238 [label="gini = 0.0\nsamples = 1\nvalue = [0, 1]", fillcolor="#399de5"] ;
236 -> 238 ;
239 [label="gini = 0.0\nsamples = 1\nvalue = [1, 0]", fillcolor="#e58139"] ;
235 -> 239 ;
240 [label="gini = 0.0\nsamples = 2\nvalue = [0, 2]", fillcolor="#399de5"] ;
234 -> 240 ;
241 [label="Age <= 25.5\ngini = 0.32\nsamples = 5\nvalue = [1, 4]", fillcolor="#6ab6ec"] ;
227 -> 241 ;
242 [label="gini = 0.0\nsamples = 4\nvalue = [0, 4]", fillcolor="#399de5"] ;
241 -> 242 ;
243 [label="gini = 0.0\nsamples = 1\nvalue = [1, 0]", fillcolor="#e58139"] ;
241 -> 243 ;
244 [label="Embarked_S <= 0.5\ngini = 0.271\nsamples = 62\nvalue = [52, 10]", fillcolor="#ea995f"] ;
226 -> 244 ;
245 [label="Age <= 36.25\ngini = 0.496\nsamples = 11\nvalue = [6, 5]", fillcolor="#fbeade"] ;
244 -> 245 ;
246 [label="Fare <= 69.825\ngini = 0.494\nsamples = 9\nvalue = [4, 5]", fillcolor="#d7ebfa"] ;
245 -> 246 ;
247 [label="Age <= 20.0\ngini = 0.32\nsamples = 5\nvalue = [1, 4]", fillcolor="#6ab6ec"] ;
246 -> 247 ;
248 [label="gini = 0.0\nsamples = 1\nvalue = [1, 0]", fillcolor="#e58139"] ;
247 -> 248 ;
249 [label="gini = 0.0\nsamples = 4\nvalue = [0, 4]", fillcolor="#399de5"] ;
247 -> 249 ;
250 [label="SibSp <= 0.5\ngini = 0.375\nsamples = 4\nvalue = [3, 1]", fillcolor="#eeab7b"] ;
246 -> 250 ;
251 [label="gini = 0.0\nsamples = 3\nvalue = [3, 0]", fillcolor="#e58139"] ;
250 -> 251 ;
252 [label="gini = 0.0\nsamples = 1\nvalue = [0, 1]", fillcolor="#399de5"] ;
250 -> 252 ;
253 [label="gini = 0.0\nsamples = 2\nvalue = [2, 0]", fillcolor="#e58139"] ;
245 -> 253 ;
254 [label="PassengerId <= 191.5\ngini = 0.177\nsamples = 51\nvalue = [46, 5]", fillcolor="#e88f4f"] ;
244 -> 254 ;
255 [label="Age <= 19.5\ngini = 0.061\nsamples = 32\nvalue = [31, 1]", fillcolor="#e6853f"] ;
254 -> 255 ;
256 [label="SibSp <= 0.5\ngini = 0.375\nsamples = 4\nvalue = [3, 1]", fillcolor="#eeab7b"] ;
255 -> 256 ;
257 [label="gini = 0.0\nsamples = 3\nvalue = [3, 0]", fillcolor="#e58139"] ;
256 -> 257 ;
258 [label="gini = 0.0\nsamples = 1\nvalue = [0, 1]", fillcolor="#399de5"] ;
256 -> 258 ;
259 [label="gini = 0.0\nsamples = 28\nvalue = [28, 0]", fillcolor="#e58139"] ;
255 -> 259 ;
260 [label="PassengerId <= 196.0\ngini = 0.332\nsamples = 19\nvalue = [15, 4]", fillcolor="#eca36e"] ;
254 -> 260 ;
261 [label="gini = 0.0\nsamples = 1\nvalue = [0, 1]", fillcolor="#399de5"] ;
260 -> 261 ;
262 [label="Pclass <= 2.5\ngini = 0.278\nsamples = 18\nvalue = [15, 3]", fillcolor="#ea9a61"] ;
260 -> 262 ;
263 [label="PassengerId <= 221.0\ngini = 0.142\nsamples = 13\nvalue = [12, 1]", fillcolor="#e78c49"] ;
262 -> 263 ;
264 [label="Fare <= 11.75\ngini = 0.375\nsamples = 4\nvalue = [3, 1]", fillcolor="#eeab7b"] ;
263 -> 264 ;
265 [label="gini = 0.0\nsamples = 1\nvalue = [0, 1]", fillcolor="#399de5"] ;
264 -> 265 ;
266 [label="gini = 0.0\nsamples = 3\nvalue = [3, 0]", fillcolor="#e58139"] ;
264 -> 266 ;
267 [label="gini = 0.0\nsamples = 9\nvalue = [9, 0]", fillcolor="#e58139"] ;
263 -> 267 ;
268 [label="Survived <= 0.5\ngini = 0.48\nsamples = 5\nvalue = [3, 2]", fillcolor="#f6d5bd"] ;
262 -> 268 ;
269 [label="PassengerId <= 204.0\ngini = 0.444\nsamples = 3\nvalue = [1, 2]", fillcolor="#9ccef2"] ;
268 -> 269 ;
270 [label="gini = 0.0\nsamples = 1\nvalue = [1, 0]", fillcolor="#e58139"] ;
269 -> 270 ;
271 [label="gini = 0.0\nsamples = 2\nvalue = [0, 2]", fillcolor="#399de5"] ;
269 -> 271 ;
272 [label="gini = 0.0\nsamples = 2\nvalue = [2, 0]", fillcolor="#e58139"] ;
268 -> 272 ;
273 [label="Age <= 24.5\ngini = 0.488\nsamples = 192\nvalue = [111, 81]", fillcolor="#f8ddc9"] ;
199 -> 273 ;
274 [label="Embarked_S <= 0.5\ngini = 0.423\nsamples = 69\nvalue = [48, 21]", fillcolor="#f0b890"] ;
273 -> 274 ;
275 [label="PassengerId <= 504.0\ngini = 0.5\nsamples = 20\nvalue = [10, 10]", fillcolor="#ffffff"] ;
274 -> 275 ;
276 [label="Survived <= 0.5\ngini = 0.459\nsamples = 14\nvalue = [9, 5]", fillcolor="#f3c7a7"] ;
275 -> 276 ;
277 [label="gini = 0.0\nsamples = 5\nvalue = [5, 0]", fillcolor="#e58139"] ;
276 -> 277 ;
278 [label="Fare <= 87.119\ngini = 0.494\nsamples = 9\nvalue = [4, 5]", fillcolor="#d7ebfa"] ;
276 -> 278 ;
279 [label="PassengerId <= 432.0\ngini = 0.32\nsamples = 5\nvalue = [1, 4]", fillcolor="#6ab6ec"] ;
278 -> 279 ;
280 [label="gini = 0.0\nsamples = 4\nvalue = [0, 4]", fillcolor="#399de5"] ;
279 -> 280 ;
281 [label="gini = 0.0\nsamples = 1\nvalue = [1, 0]", fillcolor="#e58139"] ;
279 -> 281 ;
282 [label="Age <= 21.0\ngini = 0.375\nsamples = 4\nvalue = [3, 1]", fillcolor="#eeab7b"] ;
278 -> 282 ;
283 [label="gini = 0.0\nsamples = 3\nvalue = [3, 0]", fillcolor="#e58139"] ;
282 -> 283 ;
284 [label="gini = 0.0\nsamples = 1\nvalue = [0, 1]", fillcolor="#399de5"] ;
282 -> 284 ;
285 [label="Fare <= 109.892\ngini = 0.278\nsamples = 6\nvalue = [1, 5]", fillcolor="#61b1ea"] ;
275 -> 285 ;
286 [label="gini = 0.0\nsamples = 5\nvalue = [0, 5]", fillcolor="#399de5"] ;
285 -> 286 ;
287 [label="gini = 0.0\nsamples = 1\nvalue = [1, 0]", fillcolor="#e58139"] ;
285 -> 287 ;
288 [label="PassengerId <= 291.0\ngini = 0.348\nsamples = 49\nvalue = [38, 11]", fillcolor="#eda572"] ;
274 -> 288 ;
289 [label="Age <= 20.5\ngini = 0.444\nsamples = 3\nvalue = [1, 2]", fillcolor="#9ccef2"] ;
288 -> 289 ;
290 [label="gini = 0.0\nsamples = 1\nvalue = [1, 0]", fillcolor="#e58139"] ;
289 -> 290 ;
291 [label="gini = 0.0\nsamples = 2\nvalue = [0, 2]", fillcolor="#399de5"] ;
289 -> 291 ;
292 [label="Fare <= 3.248\ngini = 0.315\nsamples = 46\nvalue = [37, 9]", fillcolor="#eba069"] ;
288 -> 292 ;
293 [label="gini = 0.0\nsamples = 1\nvalue = [0, 1]", fillcolor="#399de5"] ;
292 -> 293 ;
294 [label="Fare <= 10.169\ngini = 0.292\nsamples = 45\nvalue = [37, 8]", fillcolor="#eb9c64"] ;
292 -> 294 ;
295 [label="Fare <= 7.785\ngini = 0.142\nsamples = 26\nvalue = [24, 2]", fillcolor="#e78c49"] ;
294 -> 295 ;
296 [label="Fare <= 7.508\ngini = 0.32\nsamples = 10\nvalue = [8, 2]", fillcolor="#eca06a"] ;
295 -> 296 ;
297 [label="gini = 0.0\nsamples = 6\nvalue = [6, 0]", fillcolor="#e58139"] ;
296 -> 297 ;
298 [label="PassengerId <= 394.5\ngini = 0.5\nsamples = 4\nvalue = [2, 2]", fillcolor="#ffffff"] ;
296 -> 298 ;
299 [label="gini = 0.0\nsamples = 1\nvalue = [0, 1]", fillcolor="#399de5"] ;
298 -> 299 ;
300 [label="Fare <= 7.648\ngini = 0.444\nsamples = 3\nvalue = [2, 1]", fillcolor="#f2c09c"] ;
298 -> 300 ;
301 [label="gini = 0.0\nsamples = 1\nvalue = [0, 1]", fillcolor="#399de5"] ;
300 -> 301 ;
302 [label="gini = 0.0\nsamples = 2\nvalue = [2, 0]", fillcolor="#e58139"] ;
300 -> 302 ;
303 [label="gini = 0.0\nsamples = 16\nvalue = [16, 0]", fillcolor="#e58139"] ;
295 -> 303 ;
304 [label="Fare <= 15.6\ngini = 0.432\nsamples = 19\nvalue = [13, 6]", fillcolor="#f1bb94"] ;
294 -> 304 ;
305 [label="Age <= 18.5\ngini = 0.32\nsamples = 5\nvalue = [1, 4]", fillcolor="#6ab6ec"] ;
304 -> 305 ;
306 [label="gini = 0.0\nsamples = 1\nvalue = [1, 0]", fillcolor="#e58139"] ;
305 -> 306 ;
307 [label="gini = 0.0\nsamples = 4\nvalue = [0, 4]", fillcolor="#399de5"] ;
305 -> 307 ;
308 [label="Age <= 21.5\ngini = 0.245\nsamples = 14\nvalue = [12, 2]", fillcolor="#e9965a"] ;
304 -> 308 ;
309 [label="PassengerId <= 432.5\ngini = 0.444\nsamples = 6\nvalue = [4, 2]", fillcolor="#f2c09c"] ;
308 -> 309 ;
310 [label="gini = 0.0\nsamples = 3\nvalue = [3, 0]", fillcolor="#e58139"] ;
309 -> 310 ;
311 [label="SibSp <= 0.5\ngini = 0.444\nsamples = 3\nvalue = [1, 2]", fillcolor="#9ccef2"] ;
309 -> 311 ;
312 [label="gini = 0.0\nsamples = 1\nvalue = [1, 0]", fillcolor="#e58139"] ;
311 -> 312 ;
313 [label="gini = 0.0\nsamples = 2\nvalue = [0, 2]", fillcolor="#399de5"] ;
311 -> 313 ;
314 [label="gini = 0.0\nsamples = 8\nvalue = [8, 0]", fillcolor="#e58139"] ;
308 -> 314 ;
315 [label="Fare <= 88.25\ngini = 0.5\nsamples = 123\nvalue = [63, 60]", fillcolor="#fef9f6"] ;
273 -> 315 ;
316 [label="Age <= 33.5\ngini = 0.498\nsamples = 107\nvalue = [50.0, 57.0]", fillcolor="#e7f3fc"] ;
315 -> 316 ;
317 [label="Survived <= 0.5\ngini = 0.466\nsamples = 65\nvalue = [24, 41]", fillcolor="#add6f4"] ;
316 -> 317 ;
318 [label="Age <= 29.5\ngini = 0.5\nsamples = 39\nvalue = [19, 20]", fillcolor="#f5fafe"] ;
317 -> 318 ;
319 [label="Pclass <= 2.5\ngini = 0.461\nsamples = 25\nvalue = [16, 9]", fillcolor="#f4c8a8"] ;
318 -> 319 ;
320 [label="Fare <= 47.16\ngini = 0.219\nsamples = 8\nvalue = [7, 1]", fillcolor="#e99355"] ;
319 -> 320 ;
321 [label="gini = 0.0\nsamples = 7\nvalue = [7, 0]", fillcolor="#e58139"] ;
320 -> 321 ;
322 [label="gini = 0.0\nsamples = 1\nvalue = [0, 1]", fillcolor="#399de5"] ;
320 -> 322 ;
323 [label="PassengerId <= 493.5\ngini = 0.498\nsamples = 17\nvalue = [9, 8]", fillcolor="#fcf1e9"] ;
319 -> 323 ;
324 [label="Fare <= 9.981\ngini = 0.459\nsamples = 14\nvalue = [9, 5]", fillcolor="#f3c7a7"] ;
323 -> 324 ;
325 [label="Age <= 25.5\ngini = 0.5\nsamples = 10\nvalue = [5, 5]", fillcolor="#ffffff"] ;
324 -> 325 ;
326 [label="gini = 0.0\nsamples = 2\nvalue = [0, 2]", fillcolor="#399de5"] ;
325 -> 326 ;
327 [label="Fare <= 7.885\ngini = 0.469\nsamples = 8\nvalue = [5, 3]", fillcolor="#f5cdb0"] ;
325 -> 327 ;
328 [label="gini = 0.0\nsamples = 3\nvalue = [3, 0]", fillcolor="#e58139"] ;
327 -> 328 ;
329 [label="PassengerId <= 318.0\ngini = 0.48\nsamples = 5\nvalue = [2, 3]", fillcolor="#bddef6"] ;
327 -> 329 ;
330 [label="gini = 0.0\nsamples = 1\nvalue = [1, 0]", fillcolor="#e58139"] ;
329 -> 330 ;
331 [label="PassengerId <= 397.5\ngini = 0.375\nsamples = 4\nvalue = [1, 3]", fillcolor="#7bbeee"] ;
329 -> 331 ;
332 [label="gini = 0.0\nsamples = 3\nvalue = [0, 3]", fillcolor="#399de5"] ;
331 -> 332 ;
333 [label="gini = 0.0\nsamples = 1\nvalue = [1, 0]", fillcolor="#e58139"] ;
331 -> 333 ;
334 [label="gini = 0.0\nsamples = 4\nvalue = [4, 0]", fillcolor="#e58139"] ;
324 -> 334 ;
335 [label="gini = 0.0\nsamples = 3\nvalue = [0, 3]", fillcolor="#399de5"] ;
323 -> 335 ;
336 [label="PassengerId <= 270.0\ngini = 0.337\nsamples = 14\nvalue = [3, 11]", fillcolor="#6fb8ec"] ;
318 -> 336 ;
337 [label="gini = 0.0\nsamples = 1\nvalue = [1, 0]", fillcolor="#e58139"] ;
336 -> 337 ;
338 [label="PassengerId <= 429.5\ngini = 0.26\nsamples = 13\nvalue = [2, 11]", fillcolor="#5dafea"] ;
336 -> 338 ;
339 [label="PassengerId <= 390.0\ngini = 0.444\nsamples = 6\nvalue = [2, 4]", fillcolor="#9ccef2"] ;
338 -> 339 ;
340 [label="gini = 0.0\nsamples = 4\nvalue = [0, 4]", fillcolor="#399de5"] ;
339 -> 340 ;
341 [label="gini = 0.0\nsamples = 2\nvalue = [2, 0]", fillcolor="#e58139"] ;
339 -> 341 ;
342 [label="gini = 0.0\nsamples = 7\nvalue = [0, 7]", fillcolor="#399de5"] ;
338 -> 342 ;
343 [label="Sex_male <= 0.5\ngini = 0.311\nsamples = 26\nvalue = [5, 21]", fillcolor="#68b4eb"] ;
317 -> 343 ;
344 [label="gini = 0.0\nsamples = 13\nvalue = [0, 13]", fillcolor="#399de5"] ;
343 -> 344 ;
345 [label="Embarked_S <= 0.5\ngini = 0.473\nsamples = 13\nvalue = [5, 8]", fillcolor="#b5daf5"] ;
343 -> 345 ;
346 [label="gini = 0.0\nsamples = 3\nvalue = [3, 0]", fillcolor="#e58139"] ;
345 -> 346 ;
347 [label="Age <= 29.0\ngini = 0.32\nsamples = 10\nvalue = [2, 8]", fillcolor="#6ab6ec"] ;
345 -> 347 ;
348 [label="gini = 0.0\nsamples = 5\nvalue = [0, 5]", fillcolor="#399de5"] ;
347 -> 348 ;
349 [label="Fare <= 8.775\ngini = 0.48\nsamples = 5\nvalue = [2, 3]", fillcolor="#bddef6"] ;
347 -> 349 ;
350 [label="gini = 0.0\nsamples = 3\nvalue = [0, 3]", fillcolor="#399de5"] ;
349 -> 350 ;
351 [label="gini = 0.0\nsamples = 2\nvalue = [2, 0]", fillcolor="#e58139"] ;
349 -> 351 ;
352 [label="SibSp <= 0.5\ngini = 0.472\nsamples = 42\nvalue = [26, 16]", fillcolor="#f5cfb3"] ;
316 -> 352 ;
353 [label="Fare <= 12.938\ngini = 0.499\nsamples = 27\nvalue = [14, 13]", fillcolor="#fdf6f1"] ;
352 -> 353 ;
354 [label="PassengerId <= 576.5\ngini = 0.408\nsamples = 14\nvalue = [10, 4]", fillcolor="#efb388"] ;
353 -> 354 ;
355 [label="PassengerId <= 469.0\ngini = 0.278\nsamples = 12\nvalue = [10, 2]", fillcolor="#ea9a61"] ;
354 -> 355 ;
356 [label="gini = 0.0\nsamples = 7\nvalue = [7, 0]", fillcolor="#e58139"] ;
355 -> 356 ;
357 [label="PassengerId <= 510.5\ngini = 0.48\nsamples = 5\nvalue = [3, 2]", fillcolor="#f6d5bd"] ;
355 -> 357 ;
358 [label="gini = 0.0\nsamples = 2\nvalue = [0, 2]", fillcolor="#399de5"] ;
357 -> 358 ;
359 [label="gini = 0.0\nsamples = 3\nvalue = [3, 0]", fillcolor="#e58139"] ;
357 -> 359 ;
360 [label="gini = 0.0\nsamples = 2\nvalue = [0, 2]", fillcolor="#399de5"] ;
354 -> 360 ;
361 [label="PassengerId <= 580.5\ngini = 0.426\nsamples = 13\nvalue = [4, 9]", fillcolor="#91c9f1"] ;
353 -> 361 ;
362 [label="Fare <= 50.35\ngini = 0.298\nsamples = 11\nvalue = [2, 9]", fillcolor="#65b3eb"] ;
361 -> 362 ;
363 [label="Sex_male <= 0.5\ngini = 0.18\nsamples = 10\nvalue = [1, 9]", fillcolor="#4fa8e8"] ;
362 -> 363 ;
364 [label="PassengerId <= 373.0\ngini = 0.32\nsamples = 5\nvalue = [1, 4]", fillcolor="#6ab6ec"] ;
363 -> 364 ;
365 [label="gini = 0.0\nsamples = 3\nvalue = [0, 3]", fillcolor="#399de5"] ;
364 -> 365 ;
366 [label="PassengerId <= 482.5\ngini = 0.5\nsamples = 2\nvalue = [1, 1]", fillcolor="#ffffff"] ;
364 -> 366 ;
367 [label="gini = 0.0\nsamples = 1\nvalue = [1, 0]", fillcolor="#e58139"] ;
366 -> 367 ;
368 [label="gini = 0.0\nsamples = 1\nvalue = [0, 1]", fillcolor="#399de5"] ;
366 -> 368 ;
369 [label="gini = 0.0\nsamples = 5\nvalue = [0, 5]", fillcolor="#399de5"] ;
363 -> 369 ;
370 [label="gini = 0.0\nsamples = 1\nvalue = [1, 0]", fillcolor="#e58139"] ;
362 -> 370 ;
371 [label="gini = 0.0\nsamples = 2\nvalue = [2, 0]", fillcolor="#e58139"] ;
361 -> 371 ;
372 [label="Parch <= 0.5\ngini = 0.32\nsamples = 15\nvalue = [12, 3]", fillcolor="#eca06a"] ;
352 -> 372 ;
373 [label="gini = 0.0\nsamples = 8\nvalue = [8, 0]", fillcolor="#e58139"] ;
372 -> 373 ;
374 [label="PassengerId <= 348.5\ngini = 0.49\nsamples = 7\nvalue = [4, 3]", fillcolor="#f8e0ce"] ;
372 -> 374 ;
375 [label="gini = 0.0\nsamples = 2\nvalue = [2, 0]", fillcolor="#e58139"] ;
374 -> 375 ;
376 [label="Fare <= 30.125\ngini = 0.48\nsamples = 5\nvalue = [2, 3]", fillcolor="#bddef6"] ;
374 -> 376 ;
377 [label="PassengerId <= 523.5\ngini = 0.444\nsamples = 3\nvalue = [2, 1]", fillcolor="#f2c09c"] ;
376 -> 377 ;
378 [label="gini = 0.0\nsamples = 1\nvalue = [1, 0]", fillcolor="#e58139"] ;
377 -> 378 ;
379 [label="Age <= 35.0\ngini = 0.5\nsamples = 2\nvalue = [1, 1]", fillcolor="#ffffff"] ;
377 -> 379 ;
380 [label="gini = 0.0\nsamples = 1\nvalue = [1, 0]", fillcolor="#e58139"] ;
379 -> 380 ;
381 [label="gini = 0.0\nsamples = 1\nvalue = [0, 1]", fillcolor="#399de5"] ;
379 -> 381 ;
382 [label="gini = 0.0\nsamples = 2\nvalue = [0, 2]", fillcolor="#399de5"] ;
376 -> 382 ;
383 [label="Fare <= 159.165\ngini = 0.305\nsamples = 16\nvalue = [13, 3]", fillcolor="#eb9e67"] ;
315 -> 383 ;
384 [label="Parch <= 1.5\ngini = 0.142\nsamples = 13\nvalue = [12, 1]", fillcolor="#e78c49"] ;
383 -> 384 ;
385 [label="gini = 0.0\nsamples = 11\nvalue = [11, 0]", fillcolor="#e58139"] ;
384 -> 385 ;
386 [label="Sex_male <= 0.5\ngini = 0.5\nsamples = 2\nvalue = [1, 1]", fillcolor="#ffffff"] ;
384 -> 386 ;
387 [label="gini = 0.0\nsamples = 1\nvalue = [1, 0]", fillcolor="#e58139"] ;
386 -> 387 ;
388 [label="gini = 0.0\nsamples = 1\nvalue = [0, 1]", fillcolor="#399de5"] ;
386 -> 388 ;
389 [label="Age <= 29.0\ngini = 0.444\nsamples = 3\nvalue = [1, 2]", fillcolor="#9ccef2"] ;
383 -> 389 ;
390 [label="gini = 0.0\nsamples = 1\nvalue = [1, 0]", fillcolor="#e58139"] ;
389 -> 390 ;
391 [label="gini = 0.0\nsamples = 2\nvalue = [0, 2]", fillcolor="#399de5"] ;
389 -> 391 ;
392 [label="Age <= 35.5\ngini = 0.392\nsamples = 138\nvalue = [101, 37]", fillcolor="#efaf82"] ;
198 -> 392 ;
393 [label="SibSp <= 2.5\ngini = 0.367\nsamples = 124\nvalue = [94, 30]", fillcolor="#eda978"] ;
392 -> 393 ;
394 [label="PassengerId <= 639.5\ngini = 0.36\nsamples = 123\nvalue = [94, 29]", fillcolor="#eda876"] ;
393 -> 394 ;
395 [label="gini = 0.0\nsamples = 9\nvalue = [9, 0]", fillcolor="#e58139"] ;
394 -> 395 ;
396 [label="PassengerId <= 641.5\ngini = 0.379\nsamples = 114\nvalue = [85, 29]", fillcolor="#eeac7d"] ;
394 -> 396 ;
397 [label="gini = 0.0\nsamples = 1\nvalue = [0, 1]", fillcolor="#399de5"] ;
396 -> 397 ;
398 [label="Fare <= 7.227\ngini = 0.373\nsamples = 113\nvalue = [85, 28]", fillcolor="#eeab7a"] ;
396 -> 398 ;
399 [label="gini = 0.0\nsamples = 8\nvalue = [8, 0]", fillcolor="#e58139"] ;
398 -> 399 ;
400 [label="Fare <= 8.548\ngini = 0.391\nsamples = 105\nvalue = [77, 28]", fillcolor="#eeaf81"] ;
398 -> 400 ;
401 [label="PassengerId <= 765.5\ngini = 0.47\nsamples = 37\nvalue = [23, 14]", fillcolor="#f5ceb2"] ;
400 -> 401 ;
402 [label="Survived <= 0.5\ngini = 0.475\nsamples = 18\nvalue = [7, 11]", fillcolor="#b7dbf6"] ;
401 -> 402 ;
403 [label="Fare <= 7.875\ngini = 0.408\nsamples = 14\nvalue = [4, 10]", fillcolor="#88c4ef"] ;
402 -> 403 ;
404 [label="Age <= 29.5\ngini = 0.5\nsamples = 8\nvalue = [4, 4]", fillcolor="#ffffff"] ;
403 -> 404 ;
405 [label="Age <= 22.0\ngini = 0.444\nsamples = 6\nvalue = [4, 2]", fillcolor="#f2c09c"] ;
404 -> 405 ;
406 [label="PassengerId <= 682.5\ngini = 0.444\nsamples = 3\nvalue = [1, 2]", fillcolor="#9ccef2"] ;
405 -> 406 ;
407 [label="gini = 0.0\nsamples = 1\nvalue = [1, 0]", fillcolor="#e58139"] ;
406 -> 407 ;
408 [label="gini = 0.0\nsamples = 2\nvalue = [0, 2]", fillcolor="#399de5"] ;
406 -> 408 ;
409 [label="gini = 0.0\nsamples = 3\nvalue = [3, 0]", fillcolor="#e58139"] ;
405 -> 409 ;
410 [label="gini = 0.0\nsamples = 2\nvalue = [0, 2]", fillcolor="#399de5"] ;
404 -> 410 ;
411 [label="gini = 0.0\nsamples = 6\nvalue = [0, 6]", fillcolor="#399de5"] ;
403 -> 411 ;
412 [label="Embarked_S <= 0.5\ngini = 0.375\nsamples = 4\nvalue = [3, 1]", fillcolor="#eeab7b"] ;
402 -> 412 ;
413 [label="gini = 0.0\nsamples = 1\nvalue = [0, 1]", fillcolor="#399de5"] ;
412 -> 413 ;
414 [label="gini = 0.0\nsamples = 3\nvalue = [3, 0]", fillcolor="#e58139"] ;
412 -> 414 ;
415 [label="Age <= 28.0\ngini = 0.266\nsamples = 19\nvalue = [16, 3]", fillcolor="#ea995e"] ;
401 -> 415 ;
416 [label="Fare <= 7.373\ngini = 0.375\nsamples = 12\nvalue = [9, 3]", fillcolor="#eeab7b"] ;
415 -> 416 ;
417 [label="gini = 0.0\nsamples = 1\nvalue = [0, 1]", fillcolor="#399de5"] ;
416 -> 417 ;
418 [label="Fare <= 8.113\ngini = 0.298\nsamples = 11\nvalue = [9, 2]", fillcolor="#eb9d65"] ;
416 -> 418 ;
419 [label="Age <= 25.5\ngini = 0.18\nsamples = 10\nvalue = [9, 1]", fillcolor="#e88f4f"] ;
418 -> 419 ;
420 [label="gini = 0.0\nsamples = 8\nvalue = [8, 0]", fillcolor="#e58139"] ;
419 -> 420 ;
421 [label="Fare <= 7.892\ngini = 0.5\nsamples = 2\nvalue = [1, 1]", fillcolor="#ffffff"] ;
419 -> 421 ;
422 [label="gini = 0.0\nsamples = 1\nvalue = [1, 0]", fillcolor="#e58139"] ;
421 -> 422 ;
423 [label="gini = 0.0\nsamples = 1\nvalue = [0, 1]", fillcolor="#399de5"] ;
421 -> 423 ;
424 [label="gini = 0.0\nsamples = 1\nvalue = [0, 1]", fillcolor="#399de5"] ;
418 -> 424 ;
425 [label="gini = 0.0\nsamples = 7\nvalue = [7, 0]", fillcolor="#e58139"] ;
415 -> 425 ;
426 [label="PassengerId <= 838.0\ngini = 0.327\nsamples = 68\nvalue = [54, 14]", fillcolor="#eca26c"] ;
400 -> 426 ;
427 [label="Fare <= 119.025\ngini = 0.237\nsamples = 51\nvalue = [44.0, 7.0]", fillcolor="#e99558"] ;
426 -> 427 ;
428 [label="PassengerId <= 689.5\ngini = 0.194\nsamples = 46\nvalue = [41, 5]", fillcolor="#e89051"] ;
427 -> 428 ;
429 [label="gini = 0.0\nsamples = 14\nvalue = [14, 0]", fillcolor="#e58139"] ;
428 -> 429 ;
430 [label="PassengerId <= 696.5\ngini = 0.264\nsamples = 32\nvalue = [27, 5]", fillcolor="#ea985e"] ;
428 -> 430 ;
431 [label="gini = 0.0\nsamples = 1\nvalue = [0, 1]", fillcolor="#399de5"] ;
430 -> 431 ;
432 [label="Fare <= 26.269\ngini = 0.225\nsamples = 31\nvalue = [27, 4]", fillcolor="#e99456"] ;
430 -> 432 ;
433 [label="Fare <= 26.125\ngini = 0.298\nsamples = 22\nvalue = [18, 4]", fillcolor="#eb9d65"] ;
432 -> 433 ;
434 [label="Sex_male <= 0.5\ngini = 0.245\nsamples = 21\nvalue = [18, 3]", fillcolor="#e9965a"] ;
433 -> 434 ;
435 [label="gini = 0.0\nsamples = 6\nvalue = [6, 0]", fillcolor="#e58139"] ;
434 -> 435 ;
436 [label="SibSp <= 0.5\ngini = 0.32\nsamples = 15\nvalue = [12, 3]", fillcolor="#eca06a"] ;
434 -> 436 ;
437 [label="Age <= 20.5\ngini = 0.26\nsamples = 13\nvalue = [11, 2]", fillcolor="#ea985d"] ;
436 -> 437 ;
438 [label="Fare <= 10.081\ngini = 0.5\nsamples = 2\nvalue = [1, 1]", fillcolor="#ffffff"] ;
437 -> 438 ;
439 [label="gini = 0.0\nsamples = 1\nvalue = [0, 1]", fillcolor="#399de5"] ;
438 -> 439 ;
440 [label="gini = 0.0\nsamples = 1\nvalue = [1, 0]", fillcolor="#e58139"] ;
438 -> 440 ;
441 [label="Age <= 33.5\ngini = 0.165\nsamples = 11\nvalue = [10, 1]", fillcolor="#e88e4d"] ;
437 -> 441 ;
442 [label="gini = 0.0\nsamples = 8\nvalue = [8, 0]", fillcolor="#e58139"] ;
441 -> 442 ;
443 [label="PassengerId <= 762.0\ngini = 0.444\nsamples = 3\nvalue = [2, 1]", fillcolor="#f2c09c"] ;
441 -> 443 ;
444 [label="gini = 0.0\nsamples = 1\nvalue = [1, 0]", fillcolor="#e58139"] ;
443 -> 444 ;
445 [label="PassengerId <= 807.0\ngini = 0.5\nsamples = 2\nvalue = [1, 1]", fillcolor="#ffffff"] ;
443 -> 445 ;
446 [label="gini = 0.0\nsamples = 1\nvalue = [0, 1]", fillcolor="#399de5"] ;
445 -> 446 ;
447 [label="gini = 0.0\nsamples = 1\nvalue = [1, 0]", fillcolor="#e58139"] ;
445 -> 447 ;
448 [label="PassengerId <= 736.5\ngini = 0.5\nsamples = 2\nvalue = [1, 1]", fillcolor="#ffffff"] ;
436 -> 448 ;
449 [label="gini = 0.0\nsamples = 1\nvalue = [1, 0]", fillcolor="#e58139"] ;
448 -> 449 ;
450 [label="gini = 0.0\nsamples = 1\nvalue = [0, 1]", fillcolor="#399de5"] ;
448 -> 450 ;
451 [label="gini = 0.0\nsamples = 1\nvalue = [0, 1]", fillcolor="#399de5"] ;
433 -> 451 ;
452 [label="gini = 0.0\nsamples = 9\nvalue = [9, 0]", fillcolor="#e58139"] ;
432 -> 452 ;
453 [label="PassengerId <= 720.0\ngini = 0.48\nsamples = 5\nvalue = [3, 2]", fillcolor="#f6d5bd"] ;
427 -> 453 ;
454 [label="gini = 0.0\nsamples = 2\nvalue = [0, 2]", fillcolor="#399de5"] ;
453 -> 454 ;
455 [label="gini = 0.0\nsamples = 3\nvalue = [3, 0]", fillcolor="#e58139"] ;
453 -> 455 ;
456 [label="PassengerId <= 866.0\ngini = 0.484\nsamples = 17\nvalue = [10, 7]", fillcolor="#f7d9c4"] ;
426 -> 456 ;
457 [label="PassengerId <= 847.0\ngini = 0.408\nsamples = 7\nvalue = [2, 5]", fillcolor="#88c4ef"] ;
456 -> 457 ;
458 [label="Fare <= 43.748\ngini = 0.444\nsamples = 3\nvalue = [2, 1]", fillcolor="#f2c09c"] ;
457 -> 458 ;
459 [label="gini = 0.0\nsamples = 2\nvalue = [2, 0]", fillcolor="#e58139"] ;
458 -> 459 ;
460 [label="gini = 0.0\nsamples = 1\nvalue = [0, 1]", fillcolor="#399de5"] ;
458 -> 460 ;
461 [label="gini = 0.0\nsamples = 4\nvalue = [0, 4]", fillcolor="#399de5"] ;
457 -> 461 ;
462 [label="Age <= 26.5\ngini = 0.32\nsamples = 10\nvalue = [8, 2]", fillcolor="#eca06a"] ;
456 -> 462 ;
463 [label="gini = 0.0\nsamples = 5\nvalue = [5, 0]", fillcolor="#e58139"] ;
462 -> 463 ;
464 [label="PassengerId <= 871.5\ngini = 0.48\nsamples = 5\nvalue = [3, 2]", fillcolor="#f6d5bd"] ;
462 -> 464 ;
465 [label="gini = 0.0\nsamples = 2\nvalue = [2, 0]", fillcolor="#e58139"] ;
464 -> 465 ;
466 [label="Fare <= 11.75\ngini = 0.444\nsamples = 3\nvalue = [1, 2]", fillcolor="#9ccef2"] ;
464 -> 466 ;
467 [label="gini = 0.0\nsamples = 1\nvalue = [1, 0]", fillcolor="#e58139"] ;
466 -> 467 ;
468 [label="gini = 0.0\nsamples = 2\nvalue = [0, 2]", fillcolor="#399de5"] ;
466 -> 468 ;
469 [label="gini = 0.0\nsamples = 1\nvalue = [0, 1]", fillcolor="#399de5"] ;
393 -> 469 ;
470 [label="Parch <= 0.5\ngini = 0.5\nsamples = 14\nvalue = [7, 7]", fillcolor="#ffffff"] ;
392 -> 470 ;
471 [label="Age <= 38.5\ngini = 0.42\nsamples = 10\nvalue = [3, 7]", fillcolor="#8ec7f0"] ;
470 -> 471 ;
472 [label="gini = 0.0\nsamples = 4\nvalue = [0, 4]", fillcolor="#399de5"] ;
471 -> 472 ;
473 [label="Pclass <= 2.5\ngini = 0.5\nsamples = 6\nvalue = [3, 3]", fillcolor="#ffffff"] ;
471 -> 473 ;
474 [label="Fare <= 6.5\ngini = 0.375\nsamples = 4\nvalue = [1, 3]", fillcolor="#7bbeee"] ;
473 -> 474 ;
475 [label="gini = 0.0\nsamples = 1\nvalue = [1, 0]", fillcolor="#e58139"] ;
474 -> 475 ;
476 [label="gini = 0.0\nsamples = 3\nvalue = [0, 3]", fillcolor="#399de5"] ;
474 -> 476 ;
477 [label="gini = 0.0\nsamples = 2\nvalue = [2, 0]", fillcolor="#e58139"] ;
473 -> 477 ;
478 [label="gini = 0.0\nsamples = 4\nvalue = [4, 0]", fillcolor="#e58139"] ;
470 -> 478 ;
479 [label="gini = 0.0\nsamples = 8\nvalue = [8, 0]", fillcolor="#e58139"] ;
197 -> 479 ;
480 [label="Age <= 44.5\ngini = 0.493\nsamples = 150\nvalue = [84.0, 66.0]", fillcolor="#f9e4d5"] ;
196 -> 480 ;
481 [label="SibSp <= 1.5\ngini = 0.451\nsamples = 35\nvalue = [12, 23]", fillcolor="#a0d0f3"] ;
480 -> 481 ;
482 [label="Fare <= 6.787\ngini = 0.422\nsamples = 33\nvalue = [10, 23]", fillcolor="#8fc8f0"] ;
481 -> 482 ;
483 [label="gini = 0.0\nsamples = 1\nvalue = [1, 0]", fillcolor="#e58139"] ;
482 -> 483 ;
484 [label="PassengerId <= 157.5\ngini = 0.404\nsamples = 32\nvalue = [9, 23]", fillcolor="#86c3ef"] ;
482 -> 484 ;
485 [label="Pclass <= 1.5\ngini = 0.444\nsamples = 3\nvalue = [2, 1]", fillcolor="#f2c09c"] ;
484 -> 485 ;
486 [label="gini = 0.0\nsamples = 1\nvalue = [0, 1]", fillcolor="#399de5"] ;
485 -> 486 ;
487 [label="gini = 0.0\nsamples = 2\nvalue = [2, 0]", fillcolor="#e58139"] ;
485 -> 487 ;
488 [label="PassengerId <= 264.0\ngini = 0.366\nsamples = 29\nvalue = [7, 22]", fillcolor="#78bced"] ;
484 -> 488 ;
489 [label="gini = 0.0\nsamples = 6\nvalue = [0, 6]", fillcolor="#399de5"] ;
488 -> 489 ;
490 [label="PassengerId <= 525.0\ngini = 0.423\nsamples = 23\nvalue = [7, 16]", fillcolor="#90c8f0"] ;
488 -> 490 ;
491 [label="PassengerId <= 398.0\ngini = 0.494\nsamples = 9\nvalue = [5, 4]", fillcolor="#fae6d7"] ;
490 -> 491 ;
492 [label="Fare <= 22.875\ngini = 0.444\nsamples = 6\nvalue = [2, 4]", fillcolor="#9ccef2"] ;
491 -> 492 ;
493 [label="Pclass <= 2.5\ngini = 0.444\nsamples = 3\nvalue = [2, 1]", fillcolor="#f2c09c"] ;
492 -> 493 ;
494 [label="PassengerId <= 281.0\ngini = 0.5\nsamples = 2\nvalue = [1, 1]", fillcolor="#ffffff"] ;
493 -> 494 ;
495 [label="gini = 0.0\nsamples = 1\nvalue = [1, 0]", fillcolor="#e58139"] ;
494 -> 495 ;
496 [label="gini = 0.0\nsamples = 1\nvalue = [0, 1]", fillcolor="#399de5"] ;
494 -> 496 ;
497 [label="gini = 0.0\nsamples = 1\nvalue = [1, 0]", fillcolor="#e58139"] ;
493 -> 497 ;
498 [label="gini = 0.0\nsamples = 3\nvalue = [0, 3]", fillcolor="#399de5"] ;
492 -> 498 ;
499 [label="gini = 0.0\nsamples = 3\nvalue = [3, 0]", fillcolor="#e58139"] ;
491 -> 499 ;
500 [label="Fare <= 7.6\ngini = 0.245\nsamples = 14\nvalue = [2, 12]", fillcolor="#5aade9"] ;
490 -> 500 ;
501 [label="Age <= 41.5\ngini = 0.5\nsamples = 2\nvalue = [1, 1]", fillcolor="#ffffff"] ;
500 -> 501 ;
502 [label="gini = 0.0\nsamples = 1\nvalue = [0, 1]", fillcolor="#399de5"] ;
501 -> 502 ;
503 [label="gini = 0.0\nsamples = 1\nvalue = [1, 0]", fillcolor="#e58139"] ;
501 -> 503 ;
504 [label="Parch <= 3.0\ngini = 0.153\nsamples = 12\nvalue = [1, 11]", fillcolor="#4ba6e7"] ;
500 -> 504 ;
505 [label="gini = 0.0\nsamples = 10\nvalue = [0, 10]", fillcolor="#399de5"] ;
504 -> 505 ;
506 [label="SibSp <= 0.5\ngini = 0.5\nsamples = 2\nvalue = [1, 1]", fillcolor="#ffffff"] ;
504 -> 506 ;
507 [label="gini = 0.0\nsamples = 1\nvalue = [1, 0]", fillcolor="#e58139"] ;
506 -> 507 ;
508 [label="gini = 0.0\nsamples = 1\nvalue = [0, 1]", fillcolor="#399de5"] ;
506 -> 508 ;
509 [label="gini = 0.0\nsamples = 2\nvalue = [2, 0]", fillcolor="#e58139"] ;
481 -> 509 ;
510 [label="PassengerId <= 793.5\ngini = 0.468\nsamples = 115\nvalue = [72, 43]", fillcolor="#f5ccaf"] ;
480 -> 510 ;
511 [label="Fare <= 15.5\ngini = 0.451\nsamples = 105\nvalue = [69, 36]", fillcolor="#f3c3a0"] ;
510 -> 511 ;
512 [label="PassengerId <= 131.5\ngini = 0.496\nsamples = 35\nvalue = [19, 16]", fillcolor="#fbebe0"] ;
511 -> 512 ;
513 [label="gini = 0.0\nsamples = 4\nvalue = [4, 0]", fillcolor="#e58139"] ;
512 -> 513 ;
514 [label="Age <= 58.0\ngini = 0.499\nsamples = 31\nvalue = [15, 16]", fillcolor="#f3f9fd"] ;
512 -> 514 ;
515 [label="Fare <= 11.425\ngini = 0.493\nsamples = 25\nvalue = [14.0, 11.0]", fillcolor="#f9e4d5"] ;
514 -> 515 ;
516 [label="Fare <= 7.237\ngini = 0.408\nsamples = 14\nvalue = [10, 4]", fillcolor="#efb388"] ;
515 -> 516 ;
517 [label="Fare <= 3.527\ngini = 0.444\nsamples = 3\nvalue = [1, 2]", fillcolor="#9ccef2"] ;
516 -> 517 ;
518 [label="gini = 0.0\nsamples = 1\nvalue = [1, 0]", fillcolor="#e58139"] ;
517 -> 518 ;
519 [label="gini = 0.0\nsamples = 2\nvalue = [0, 2]", fillcolor="#399de5"] ;
517 -> 519 ;
520 [label="Age <= 49.0\ngini = 0.298\nsamples = 11\nvalue = [9, 2]", fillcolor="#eb9d65"] ;
516 -> 520 ;
521 [label="gini = 0.0\nsamples = 4\nvalue = [4, 0]", fillcolor="#e58139"] ;
520 -> 521 ;
522 [label="Fare <= 7.9\ngini = 0.408\nsamples = 7\nvalue = [5, 2]", fillcolor="#efb388"] ;
520 -> 522 ;
523 [label="gini = 0.0\nsamples = 1\nvalue = [0, 1]", fillcolor="#399de5"] ;
522 -> 523 ;
524 [label="Pclass <= 2.5\ngini = 0.278\nsamples = 6\nvalue = [5, 1]", fillcolor="#ea9a61"] ;
522 -> 524 ;
525 [label="gini = 0.0\nsamples = 3\nvalue = [3, 0]", fillcolor="#e58139"] ;
524 -> 525 ;
526 [label="PassengerId <= 353.0\ngini = 0.444\nsamples = 3\nvalue = [2, 1]", fillcolor="#f2c09c"] ;
524 -> 526 ;
527 [label="gini = 0.0\nsamples = 2\nvalue = [2, 0]", fillcolor="#e58139"] ;
526 -> 527 ;
528 [label="gini = 0.0\nsamples = 1\nvalue = [0, 1]", fillcolor="#399de5"] ;
526 -> 528 ;
529 [label="PassengerId <= 340.5\ngini = 0.463\nsamples = 11\nvalue = [4, 7]", fillcolor="#aad5f4"] ;
515 -> 529 ;
530 [label="gini = 0.0\nsamples = 3\nvalue = [0, 3]", fillcolor="#399de5"] ;
529 -> 530 ;
531 [label="PassengerId <= 525.5\ngini = 0.5\nsamples = 8\nvalue = [4, 4]", fillcolor="#ffffff"] ;
529 -> 531 ;
532 [label="gini = 0.0\nsamples = 2\nvalue = [2, 0]", fillcolor="#e58139"] ;
531 -> 532 ;
533 [label="Age <= 51.0\ngini = 0.444\nsamples = 6\nvalue = [2, 4]", fillcolor="#9ccef2"] ;
531 -> 533 ;
534 [label="gini = 0.0\nsamples = 3\nvalue = [0, 3]", fillcolor="#399de5"] ;
533 -> 534 ;
535 [label="Fare <= 12.675\ngini = 0.444\nsamples = 3\nvalue = [2, 1]", fillcolor="#f2c09c"] ;
533 -> 535 ;
536 [label="gini = 0.0\nsamples = 1\nvalue = [0, 1]", fillcolor="#399de5"] ;
535 -> 536 ;
537 [label="gini = 0.0\nsamples = 2\nvalue = [2, 0]", fillcolor="#e58139"] ;
535 -> 537 ;
538 [label="Embarked_S <= 0.5\ngini = 0.278\nsamples = 6\nvalue = [1, 5]", fillcolor="#61b1ea"] ;
514 -> 538 ;
539 [label="gini = 0.0\nsamples = 1\nvalue = [1, 0]", fillcolor="#e58139"] ;
538 -> 539 ;
540 [label="gini = 0.0\nsamples = 5\nvalue = [0, 5]", fillcolor="#399de5"] ;
538 -> 540 ;
541 [label="Fare <= 33.76\ngini = 0.408\nsamples = 70\nvalue = [50, 20]", fillcolor="#efb388"] ;
511 -> 541 ;
542 [label="Age <= 61.5\ngini = 0.245\nsamples = 28\nvalue = [24, 4]", fillcolor="#e9965a"] ;
541 -> 542 ;
543 [label="Age <= 45.25\ngini = 0.083\nsamples = 23\nvalue = [22, 1]", fillcolor="#e68742"] ;
542 -> 543 ;
544 [label="PassengerId <= 489.0\ngini = 0.375\nsamples = 4\nvalue = [3, 1]", fillcolor="#eeab7b"] ;
543 -> 544 ;
545 [label="gini = 0.0\nsamples = 3\nvalue = [3, 0]", fillcolor="#e58139"] ;
544 -> 545 ;
546 [label="gini = 0.0\nsamples = 1\nvalue = [0, 1]", fillcolor="#399de5"] ;
544 -> 546 ;
547 [label="gini = 0.0\nsamples = 19\nvalue = [19, 0]", fillcolor="#e58139"] ;
543 -> 547 ;
548 [label="Age <= 72.5\ngini = 0.48\nsamples = 5\nvalue = [2, 3]", fillcolor="#bddef6"] ;
542 -> 548 ;
549 [label="PassengerId <= 355.0\ngini = 0.375\nsamples = 4\nvalue = [1, 3]", fillcolor="#7bbeee"] ;
548 -> 549 ;
550 [label="gini = 0.0\nsamples = 1\nvalue = [1, 0]", fillcolor="#e58139"] ;
549 -> 550 ;
551 [label="gini = 0.0\nsamples = 3\nvalue = [0, 3]", fillcolor="#399de5"] ;
549 -> 551 ;
552 [label="gini = 0.0\nsamples = 1\nvalue = [1, 0]", fillcolor="#e58139"] ;
548 -> 552 ;
553 [label="Fare <= 35.077\ngini = 0.472\nsamples = 42\nvalue = [26, 16]", fillcolor="#f5cfb3"] ;
541 -> 553 ;
554 [label="gini = 0.0\nsamples = 3\nvalue = [0, 3]", fillcolor="#399de5"] ;
553 -> 554 ;
555 [label="PassengerId <= 437.0\ngini = 0.444\nsamples = 39\nvalue = [26, 13]", fillcolor="#f2c09c"] ;
553 -> 555 ;
556 [label="PassengerId <= 288.0\ngini = 0.492\nsamples = 16\nvalue = [7, 9]", fillcolor="#d3e9f9"] ;
555 -> 556 ;
557 [label="Parch <= 0.5\ngini = 0.486\nsamples = 12\nvalue = [7, 5]", fillcolor="#f8dbc6"] ;
556 -> 557 ;
558 [label="Embarked_S <= 0.5\ngini = 0.245\nsamples = 7\nvalue = [6, 1]", fillcolor="#e9965a"] ;
557 -> 558 ;
559 [label="PassengerId <= 124.5\ngini = 0.5\nsamples = 2\nvalue = [1, 1]", fillcolor="#ffffff"] ;
558 -> 559 ;
560 [label="gini = 0.0\nsamples = 1\nvalue = [0, 1]", fillcolor="#399de5"] ;
559 -> 560 ;
561 [label="gini = 0.0\nsamples = 1\nvalue = [1, 0]", fillcolor="#e58139"] ;
559 -> 561 ;
562 [label="gini = 0.0\nsamples = 5\nvalue = [5, 0]", fillcolor="#e58139"] ;
558 -> 562 ;
563 [label="SibSp <= 0.5\ngini = 0.32\nsamples = 5\nvalue = [1, 4]", fillcolor="#6ab6ec"] ;
557 -> 563 ;
564 [label="gini = 0.0\nsamples = 4\nvalue = [0, 4]", fillcolor="#399de5"] ;
563 -> 564 ;
565 [label="gini = 0.0\nsamples = 1\nvalue = [1, 0]", fillcolor="#e58139"] ;
563 -> 565 ;
566 [label="gini = 0.0\nsamples = 4\nvalue = [0, 4]", fillcolor="#399de5"] ;
556 -> 566 ;
567 [label="Parch <= 1.5\ngini = 0.287\nsamples = 23\nvalue = [19, 4]", fillcolor="#ea9c63"] ;
555 -> 567 ;
568 [label="SibSp <= 1.5\ngini = 0.18\nsamples = 20\nvalue = [18, 2]", fillcolor="#e88f4f"] ;
567 -> 568 ;
569 [label="Fare <= 58.165\ngini = 0.105\nsamples = 18\nvalue = [17, 1]", fillcolor="#e78845"] ;
568 -> 569 ;
570 [label="Fare <= 54.465\ngini = 0.245\nsamples = 7\nvalue = [6, 1]", fillcolor="#e9965a"] ;
569 -> 570 ;
571 [label="gini = 0.0\nsamples = 6\nvalue = [6, 0]", fillcolor="#e58139"] ;
570 -> 571 ;
572 [label="gini = 0.0\nsamples = 1\nvalue = [0, 1]", fillcolor="#399de5"] ;
570 -> 572 ;
573 [label="gini = 0.0\nsamples = 11\nvalue = [11, 0]", fillcolor="#e58139"] ;
569 -> 573 ;
574 [label="Fare <= 92.565\ngini = 0.5\nsamples = 2\nvalue = [1, 1]", fillcolor="#ffffff"] ;
568 -> 574 ;
575 [label="gini = 0.0\nsamples = 1\nvalue = [0, 1]", fillcolor="#399de5"] ;
574 -> 575 ;
576 [label="gini = 0.0\nsamples = 1\nvalue = [1, 0]", fillcolor="#e58139"] ;
574 -> 576 ;
577 [label="Age <= 61.0\ngini = 0.444\nsamples = 3\nvalue = [1, 2]", fillcolor="#9ccef2"] ;
567 -> 577 ;
578 [label="gini = 0.0\nsamples = 2\nvalue = [0, 2]", fillcolor="#399de5"] ;
577 -> 578 ;
579 [label="gini = 0.0\nsamples = 1\nvalue = [1, 0]", fillcolor="#e58139"] ;
577 -> 579 ;
580 [label="Fare <= 66.277\ngini = 0.42\nsamples = 10\nvalue = [3, 7]", fillcolor="#8ec7f0"] ;
510 -> 580 ;
581 [label="SibSp <= 0.5\ngini = 0.5\nsamples = 6\nvalue = [3, 3]", fillcolor="#ffffff"] ;
580 -> 581 ;
582 [label="Fare <= 8.388\ngini = 0.48\nsamples = 5\nvalue = [2, 3]", fillcolor="#bddef6"] ;
581 -> 582 ;
583 [label="gini = 0.0\nsamples = 1\nvalue = [1, 0]", fillcolor="#e58139"] ;
582 -> 583 ;
584 [label="PassengerId <= 860.5\ngini = 0.375\nsamples = 4\nvalue = [1, 3]", fillcolor="#7bbeee"] ;
582 -> 584 ;
585 [label="gini = 0.0\nsamples = 2\nvalue = [0, 2]", fillcolor="#399de5"] ;
584 -> 585 ;
586 [label="PassengerId <= 868.5\ngini = 0.5\nsamples = 2\nvalue = [1, 1]", fillcolor="#ffffff"] ;
584 -> 586 ;
587 [label="gini = 0.0\nsamples = 1\nvalue = [1, 0]", fillcolor="#e58139"] ;
586 -> 587 ;
588 [label="gini = 0.0\nsamples = 1\nvalue = [0, 1]", fillcolor="#399de5"] ;
586 -> 588 ;
589 [label="gini = 0.0\nsamples = 1\nvalue = [1, 0]", fillcolor="#e58139"] ;
581 -> 589 ;
590 [label="gini = 0.0\nsamples = 4\nvalue = [0, 4]", fillcolor="#399de5"] ;
580 -> 590 ;
}